26 100
sentence -0.00053622725 0.00023643136 0.0051033497 0.009009273 -0.0093029495 -0.007116809 0.0064588725 0.008972988 -0.005015428 -0.0037633716 0.0073805046 -0.0015334714 -0.0045366134 0.006554052 -0.0048601604 -0.0018160177 0.0028765798 0.0009918738 -0.008285215 -0.009448818 0.007311766 0.005070262 0.0067576934 0.00076286553 0.0063508903 -0.0034053659 -0.0009464014 0.0057685734 -0.0075216377 -0.0039361035 -0.007511582 -0.00093004224 0.009538119 -0.007319167 -0.0023337686 -0.0019377411 0.008077437 -0.005930896 4.516244e-05 -0.004753734 -0.009603551 0.005007293 -0.008759585 -0.0043918253 -3.5099984e-05 -0.00029618145 -0.00766124 0.009614743 0.004982058 0.009233143 -0.008157917 0.004495798 -0.004137076 0.0008245361 0.00849862 -0.0044621765 0.0045175003 -0.00678696 -0.0035484887 0.009398508 -0.0015776526 0.00032137157 -0.00414063 -0.007682688 -0.0015080082 0.0024697948 -0.00088802696 0.0055336617 -0.002742977 0.0022600652 0.0054557943 0.008345953 -0.0014537406 -0.009208143 0.0043705525 0.00057178497 0.007441908 -0.00081328274 -0.0026384138 -0.008753009 -0.0008565569 0.002826563 0.005401429 0.0070526563 -0.0057031214 0.0018588197 0.0060888636 -0.004798051 -0.0031072604 0.0067976294 0.0016314756 0.00018991709 0.0034736372 0.00021777749 0.009618826 0.005060604 -0.00891739 -0.0070415605 0.0009014559 0.006392534
the -0.0086196875 0.003665738 0.0051898835 0.0057419385 0.0074669183 -0.0061676754 0.0011056137 0.0060472824 -0.0028400505 -0.0061735227 -0.000410223 -0.0083689485 -0.0056000124 0.007104539 0.0033525396 0.0072256695 0.0068002474 0.007530742 -0.0037891543 -0.00056180597 0.0023483764 -0.0045190323 0.008388732 -0.009858164 0.006764641 0.0029144168 -0.0049328315 0.0043981876 -0.0017395747 0.0067113843 0.00996485 -0.0043624435 -0.0005993378 -0.0056956373 0.0038508223 0.0027866268 0.0068910765 0.0061010956 0.009538497 0.009273417 0.007898068 -0.006989504 -0.009155865 -0.0003557527 -0.0030998408 0.007894317 0.005938574 -0.0015456629 0.0015109634 0.0017900408 0.007817571 -0.0095101865 -0.00020553112 0.0034691966 -0.0009389722 0.008381772 0.009010783 0.0065365066 -0.000711621 0.007710404 -0.008534335 0.0032071066 -0.004637997 -0.005088955 0.0035896183 0.0053703394 0.0077695143 -0.0057665063 0.007433361 0.0066254963 -0.0037098003 -0.008745641 0.0054374672 0.0065097557 -0.00078755023 -0.006709856 -0.0070859254 -0.0024970602 0.0051432536 -0.0036652375 -0.00937006 0.0038267397 0.004884479 -0.0064285635 0.0012085581 -0.002074877 2.4403334e-05 -0.009883509 0.0026920044 -0.0047501065 0.0010876465 -0.0015762246 0.002196673 -0.007881576 -0.002717184 0.0026631986 0.005346682 -0.0023915148 -0.009510094 0.004505879
this 9.456396e-05 0.0030773198 -0.006812645 -0.0013754654 0.007668581 0.0073464094 -0.0036732971 0.0026427018 -0.00831713 0.006205486 -0.0046373224 -0.0031641065 0.009311357 0.0008733857 0.007490703 -0.0060740625 0.005160507 0.009922823 -0.0084573915 -0.0051356913 -0.007064837 -0.0048626517 -0.0037785638 -0.008536199 0.007955606 -0.004843938 0.008423613 0.0052625705 -0.006550026 0.0039578713 0.0054701497 -0.007426536 -0.0074057197 -0.0024752307 -0.008625725 -0.0015815723 -0.00040343284 0.0032996845 0.0014418805 -0.00088142155 -0.005594058 0.0017303658 -0.0008973718 0.006793691 0.00397359 0.0045294715 0.0014343059 -0.0026998555 -0.0043668128 -0.0010320747 0.0014370275 -0.0026460087 -0.007073783 -0.007805307 -0.009121787 -0.0059351693 -0.0018474245 -0.0043238713 -0.0064606704 -0.0037173224 0.0042891586 -0.0037390434 0.008378175 0.0015339935 -0.0072423196 0.0094337985 0.0076312125 0.005493282 -0.0068488456 0.005822679 0.004009093 0.0051853694 0.0042559016 0.0019397545 -0.0031701624 0.008353845 0.00961218 0.003792603 -0.002836995 7.1275235e-06 0.0012188185 -0.008458325 -0.008223945 -0.00023101569 0.0012372875 -0.0057433806 -0.0047252737 -0.0073460746 0.008328616 0.00012129784 -0.0045093987 0.0057017053 0.009180015 -0.004099872 0.007964682 0.005375434 0.005879123 0.0005125904 0.008213084 -0.0070190406
is -0.008242678 0.009299355 -0.00019766092 -0.0019672764 0.0046036304 -0.004095316 0.0027431143 0.0069399667 0.006065426 -0.0075107943 0.00938235 0.0046718083 0.0039661205 -0.0062435055 0.00845998 -0.002150165 0.008825188 -0.0053620026 -0.008129419 0.006824559 0.0016711927 -0.002198509 0.009513601 0.009493855 -0.009774047 0.0025052286 0.0061566923 0.0038724565 0.0020227872 0.0004305017 0.00067363144 -0.0038206363 -0.0071402504 -0.0020888723 0.0039238976 0.008818683 0.00925915 -0.0059759365 -0.009402671 0.009764377 0.0034297847 0.005166117 0.006282345 -0.0028042626 0.0073227035 0.0028302716 0.0028710044 -0.00238037 -0.0031282497 -0.0023701417 0.0042764368 7.605791e-05 -0.009584279 -0.009665544 -0.006148194 -0.0001285696 0.001997416 0.0094319675 0.005584351 -0.0042906962 0.00027831673 0.0049643586 0.0076983096 -0.0011442233 0.0043234206 -0.0058143795 -0.00080419064 0.0081000505 -0.002360065 -0.009663455 0.0057792603 -0.0039298222 -0.0012228728 0.009980517 -0.0022563506 -0.0047570644 -0.0053293873 0.00698089 -0.005708872 0.002113663 -0.00525566 0.006120714 0.0043573068 0.002606355 -0.001491083 -0.0027460635 0.008992936 0.0052157748 -0.0021625196 -0.00947031 -0.007426052 -0.0010637414 -0.00079494715 -0.0025629092 0.0096827205 -0.00045852066 0.005873761 -0.0074475873 -0.0025060738 -0.0055498634
and -0.008722109 0.002121833 -0.00087748404 -0.009323929 -0.0094323205 -0.0014135547 0.0044417614 0.0037114427 -0.006510069 -0.00688281 -0.0050022956 -0.0022890086 -0.007255206 -0.009600584 -0.0027457408 -0.0083699515 -0.006035059 -0.0056667617 -0.002341951 -0.0017116081 -0.008959955 -0.00074139785 0.008163079 0.0076903286 -0.0072094635 -0.0036698207 0.0031150938 -0.009575815 0.001480599 0.0065280185 0.0057597854 -0.008765501 -0.004522281 -0.008145335 4.162548e-05 0.0092679225 0.005973412 0.0050704 0.0050659664 -0.003256772 0.009562697 -0.0073683294 -0.007265581 -0.0022656606 -0.00077776477 -0.0032123912 -0.0006023424 0.007488716 -0.0006924102 -0.0016281425 0.0027400597 -0.008374325 0.007858122 0.008540966 -0.009595012 0.0024495255 0.009908154 -0.007673355 -0.0069700996 -0.007744604 0.008405713 -0.00067856605 0.0091594625 -0.008158207 0.0037395938 0.0026471652 0.0007425708 0.0023345344 -0.007479533 -0.009367765 0.0023611304 0.0061538303 0.007995386 0.005744992 -0.000768032 0.0083059985 -0.00933996 0.0034150784 0.00025978862 0.0038566245 0.0073906095 -0.006734835 0.005580411 -0.009522231 -0.00079940906 -0.008700409 -0.005096382 0.009296227 -0.0018641939 0.0029111353 0.009081337 0.008942003 -0.0082139755 -0.0030085777 0.0098949075 0.005111926 -0.0015825299 -0.008704232 0.0029659534 -0.006679848
more -0.0051562428 -0.0066683376 -0.007776835 0.008310728 -0.001982342 -0.0068549635 -0.004154389 0.0051441262 -0.0028691364 -0.0037496602 0.0016214252 -0.0027762938 -0.0015843606 0.0010744918 -0.0029779447 0.008519283 0.003910935 -0.009958863 0.0062595997 -0.006754254 0.0007694328 0.0044042347 -0.005103375 -0.0021106696 0.008095479 -0.0042437925 -0.007636261 0.009257913 -0.002155497 -0.0047194324 0.0085708 0.004283339 0.0043248367 0.009284513 -0.00845308 0.00525532 0.0020393515 0.00418828 0.0016979002 0.004464134 0.0044862903 0.006104522 -0.0032020975 -0.004575728 -0.00042651652 0.0025337338 -0.003263167 0.006057718 0.0041541304 0.0077645923 0.0025692724 0.008116683 -0.0013872099 0.008077928 0.003717016 -0.008047325 -0.0039336146 -0.0024718784 0.004893044 -0.000872159 -0.0028309084 0.007833707 0.0093229 -0.0016149282 -0.0051592495 -0.0047017587 -0.004846051 -0.009602826 0.0013720202 -0.0042249155 0.0025267089 0.0056144833 -0.0040659057 -0.009596582 0.0015466976 -0.0067001223 0.0024951743 -0.003780632 0.0070784213 0.00064022065 0.0035609389 -0.0027391338 -0.0017105473 0.007652793 0.0014076781 -0.0058504487 -0.007834497 0.0012326873 0.006454631 0.0055563496 -0.00897705 0.008592164 0.004046978 0.007469605 0.0097463345 -0.00728958 -0.009039963 0.0058360007 0.009391213 0.0035069252
final -0.007139015 0.0012410306 -0.0071767163 -0.002244618 0.0037193035 0.005833124 0.0011981833 0.0021027315 -0.0041103913 0.0072253332 -0.0063070417 0.004647216 -0.008219973 0.002036468 -0.004977052 -0.004247688 -0.0031089843 0.0056552086 0.005798401 -0.004974649 0.0007733309 -0.008495778 0.0078098057 0.009257291 -0.0027423275 0.0008002233 0.0007466519 0.005477885 -0.008606079 0.00058445573 0.0068694223 0.0022315944 0.0011246764 -0.009322155 0.008482367 -0.0062641273 -0.0029923737 0.003493787 -0.0007726276 0.0014112913 0.0017819917 -0.0068288995 -0.009724812 0.009040585 0.0061980546 -0.0069129276 0.0034034825 0.00020606398 0.0047537456 -0.007119943 0.004026954 0.0043474343 0.009957369 -0.00447374 -0.0013892639 -0.0073173214 -0.009697829 -0.009080257 -0.0010227549 -0.00650329 0.004849728 -0.0061640264 0.0025191857 0.0007394409 -0.003392154 -0.0009792233 0.009979125 0.009145887 -0.0044618296 0.009083027 -0.005641763 0.005930922 -0.0030972182 0.0034317516 0.0030172265 0.006900461 -0.0023738837 0.008775037 0.007589428 -0.009547646 -0.008008209 -0.0076378966 0.0029232574 -0.0027947223 -0.0069295205 -0.008128264 0.00830918 0.0019904887 -0.009328017 -0.0047927164 0.0031367384 -0.004713206 0.005280843 -0.0042334413 0.002641796 -0.008045687 0.006209886 0.004818889 0.0007871926 0.0030134476
yet 0.008132704 -0.004457571 -0.001068431 0.0010064061 -0.00019111701 0.00114824 0.006114189 -2.0266072e-05 -0.0032461341 -0.0015108006 0.0058976235 0.0015141858 -0.0007243092 0.009333763 -0.004921553 -0.00083845976 0.009175907 0.0067497976 0.0015029492 -0.008883033 0.001148809 -0.0022883923 0.009368748 0.0012100092 0.0014901587 0.002406531 -0.0018361011 -0.004999919 0.00023245346 -0.0020143052 0.006601306 0.008940608 -0.00067478966 0.0029771894 -0.006107984 0.00169942 -0.006926603 -0.008694502 -0.005900514 -0.008956971 0.007277979 -0.0057723443 0.008276807 -0.0072439485 0.0034218482 0.00967554 -0.0077858637 -0.009945598 -0.004329399 -0.0026832793 -0.0002712897 -0.008832034 -0.0086180465 0.0028003769 -0.008206848 -0.00906985 -0.0023405792 -0.008632287 -0.007057038 -0.008401623 -0.00030135937 -0.004564544 0.0066275448 0.0015272293 -0.0033416625 0.0061092963 -0.006013599 -0.004656441 -0.007207902 -0.004336808 -0.0018094343 0.0064899996 -0.0027705529 0.004919241 0.006904828 -0.0074641192 0.0045650867 0.006127323 -0.0029546411 0.0066253985 0.006126227 -0.006443838 -0.006764908 0.0025390934 -0.0016239106 -0.0060654567 0.009499722 -0.0051304447 -0.006554471 -0.00011988863 -0.0027015796 0.00044443138 -0.0035376383 -0.00041936414 -0.0007086514 0.0008228669 0.00819527 -0.0057370146 -0.0016596259 0.0055719204
another 0.008168568 -0.004443276 0.008985926 0.008254117 -0.0044354657 0.00030312172 0.004274726 -0.0039265356 -0.0055602705 -0.0065126796 -0.000670775 -0.00029593782 0.00446333 -0.0024741897 -0.00017261856 0.0024620108 0.004867866 -3.081014e-05 -0.0063397572 -0.009261316 2.6659043e-05 0.00666226 0.0014661031 -0.008967014 -0.007939041 0.0065522618 -0.0037858882 0.0062553356 -0.0066813985 0.008480128 -0.006516682 0.0032882004 -0.0010570438 -0.0067879003 -0.003287777 -0.0011614757 -0.0054712403 -0.001211414 -0.0075637284 0.0026468048 0.009070646 -0.0023773806 -0.0009765637 0.0035137543 0.008665563 -0.005922178 -0.006887956 -0.0029331457 0.009148198 0.0008663152 -0.008678877 -0.0014470584 0.009479986 -0.007549902 -0.0053583924 0.009317074 -0.008974219 0.0038261176 0.00066547707 0.006661067 0.00831321 -0.0028509416 -0.003992532 0.008898405 0.0020897605 0.0062492844 -0.009446233 0.00959065 -0.0013483822 -0.006052447 0.0029926987 -0.000456636 0.004706751 -0.0022831464 -0.0041380697 0.0022780239 0.008354842 -0.00499588 0.0026688252 -0.007990994 -0.006773718 -0.00046769445 -0.008768209 0.0027895907 0.0015986831 -0.0023198198 0.0050040656 0.009749321 0.008454732 -0.001880328 0.0020582648 -0.004003909 -0.008241858 0.0062783 -0.0019492885 -0.0006662412 -0.0017714292 -0.0045359144 0.0040619327 -0.004270415
one -0.0095785465 0.008943115 0.0041650687 0.009234735 0.0066435025 0.0029247368 0.00980402 -0.004424641 -0.006803311 0.0042273807 0.003729 -0.005664611 0.00970476 -0.0035583067 0.009549406 0.0008347261 -0.0063384566 -0.001977117 -0.0073770545 -0.002979523 0.0010416972 0.009482687 0.009355848 -0.0065958775 0.003475151 0.0022755705 -0.0024893521 -0.009229172 0.0010271263 -0.008165706 0.006320189 -0.0058000805 0.005535439 0.009833723 -0.00016000033 0.0045284927 -0.0018094003 0.007360761 0.003940097 -0.009010324 -0.002398504 0.003628769 -9.9568366e-05 -0.0012012708 -0.0010554385 -0.0016716016 0.00060495257 0.0041650953 -0.0042527914 -0.0038336217 -5.2816868e-05 0.00026935578 -0.00016880632 -0.0047855065 0.0043134023 -0.0021719194 0.0021035396 0.000666523 0.005969677 -0.006842381 -0.00681571 -0.0044762576 0.009435829 -0.0015918827 -0.009429242 -0.0005450416 -0.004448923 0.0060000787 -0.009583686 0.002859001 -0.009252832 0.0012498009 0.005999198 0.0073973476 -0.0076214634 -0.0060530235 -0.006838441 -0.00791834 -0.0094990805 -0.002125497 -0.0008359325 -0.0072562015 0.0067870365 0.0011196196 0.0058288667 0.0014728665 0.0007893658 -0.0073681297 -0.002176658 0.0043210792 -0.0050853146 0.0011307895 0.002883364 -0.001536361 0.009932295 0.008349635 0.0024156666 0.0071182456 0.0058914376 -0.005580617
for 0.007088797 -0.00156793 0.007947499 -0.009488659 -0.008029499 -0.006640371 -0.0040034545 0.004989216 -0.0038135587 -0.008319905 0.008411777 -0.003747002 0.008608696 -0.0048957514 0.003918594 0.004922017 0.0023926091 -0.0028188038 0.0028491246 -0.008256236 -0.0027655398 -0.0025911583 0.007249006 -0.003463403 -0.006599703 0.004340427 -0.00047448516 -0.0035975564 0.006882472 0.0038723124 -0.0039002013 0.0007718885 0.009143502 0.007754656 0.006361872 0.0046673026 0.0023844899 -0.0018416261 -0.006371293 -0.0003018105 -0.0015653884 -0.0005722857 -0.006262871 0.0074340473 -0.006591493 -0.0072392775 -0.0027571463 -0.0015154004 -0.0076357173 0.000698241 -0.0053261113 -0.0012755442 -0.0073651113 0.0019605684 0.0032731986 -2.3138524e-05 -0.005448358 -0.0017260861 0.007084917 0.0037362587 -0.008881049 -0.0034135508 0.0023541022 0.0021380198 -0.009464008 0.004571166 -0.008656997 -0.007387068 0.003483112 -0.0034709584 0.003564471 0.008894091 -0.0035743224 0.009320425 0.0017110384 0.009847774 0.005705043 -0.009149483 -0.0033277308 0.006530175 0.0056027793 0.008705515 0.0069261026 0.008038888 -0.009823008 0.0042988253 -0.0050300765 0.003512386 0.006056688 0.0043921317 0.0075123594 0.0014977157 -0.0012649416 0.0057684006 -0.0056395675 3.8591625e-05 0.009456587 -0.00548125 0.0038142789 -0.008113021
word2vec 0.009770293 0.008165114 0.0012809718 0.0050975787 0.0014081288 -0.0064551616 -0.001428051 0.0064491653 -0.004617306 -0.0039930656 0.0049244044 0.0027130984 -0.0018479753 -0.0028769434 0.0060107317 -0.0057167388 -0.0032367026 -0.006487825 -0.0042346325 -0.008580995 -0.004469789 -0.008511229 0.0014037776 -0.0086181965 -0.009916656 -0.008201625 -0.006772666 0.006680585 0.0037845564 0.00035616636 -0.0029579818 -0.0074283206 0.0005334187 0.0004998922 0.00019561886 0.00085259555 0.0007863307 -6.81603e-05 -0.008007054 -0.0058702733 -0.008382912 -0.0013120425 0.001820637 0.007417128 -0.001963427 -0.0023252917 0.009487155 7.970452e-05 -0.0024045217 0.008604847 0.0026870037 -0.0053439722 0.006588106 0.0045101536 -0.007054467 -0.000323174 0.0008344865 0.0057473574 -0.0017176545 -0.00280653 0.0017484308 0.0008471715 0.0011928272 -0.0026342822 -0.0059857843 0.007322984 0.0075873756 0.0082963575 -0.008598847 0.0026364254 -0.0035599626 0.009620404 0.0029037679 0.0046411133 0.0023856151 0.006608478 -0.0057432903 0.007894413 -0.002410922 -0.0045618857 -0.0020609903 0.009733558 -0.0068565905 -0.00219172 0.0070009995 -5.5749417e-05 -0.006294967 -0.0063935257 0.008940395 0.006429576 0.004773593 -0.0032620477 -0.00926762 0.0037868882 0.0071605504 -0.0056328895 -0.007865013 -0.00297274 -0.0049318983 -0.0023151112
second -0.0019442164 -0.0052675214 0.009447114 -0.0092987325 0.0045039477 0.005404178 -0.0014092624 0.009007093 0.00988536 -0.005475043 -0.006021 -0.006746973 -0.007894882 -0.0030479168 -0.005594027 -0.00834468 0.00078290224 0.0029946566 0.0064147436 -0.00262895 -0.0044534765 0.0012495709 0.00039146186 0.008116999 0.00018280029 0.007231586 -0.008264516 0.008433537 -0.0018889094 0.008701154 -0.007616837 0.0017963862 0.0010564864 4.600525e-05 -0.0051032533 -0.009247698 -0.0072642174 -0.007951174 0.0019137275 0.00047846674 -0.0018131376 0.007120166 -0.002475692 -0.0013473093 -0.008900564 -0.009925413 0.008949398 -0.005753938 -0.0063729975 0.005199407 0.0066699935 -0.0068316413 0.0009597599 -0.0060084737 0.0016473436 -0.0042892788 -0.0034407973 0.0021856665 0.0086615775 0.0067281104 -0.009677057 -0.0056221043 0.007880333 0.0019893574 -0.004256052 0.0005988121 0.009520961 -0.0011027169 -0.009424638 0.0016084099 0.006232355 0.00628237 0.0040916502 -0.005650239 -0.00037069322 -5.531788e-05 0.0045717955 -0.0080415895 -0.008018309 0.0002647507 -0.008608299 0.0058201565 -0.00041781188 0.009971177 -0.0053439774 -0.00048613906 0.0077567734 -0.0040679323 -0.0050159004 0.0015900708 0.0026506938 -0.0025649595 0.0064475285 -0.0076599526 0.0033935606 0.00048997044 0.008732183 0.005982714 0.006815362 0.007822544
first -0.00950012 0.009562223 -0.0077707553 -0.0026455082 -0.004906409 -0.0049666967 -0.008023591 -0.0077835848 -0.004553212 -0.0012753617 -0.0051029883 0.006140542 -0.009516619 -0.0053071044 0.009437152 0.006991329 0.007675816 0.0042347396 0.00050709245 -0.0059811436 0.006018777 0.0026350308 0.0076994337 0.006393843 0.00794257 0.008657407 -0.009895755 -0.006755705 0.0013375747 0.0064403033 0.007373816 0.005516981 0.0076616253 -0.005125568 0.0065844096 -0.004108373 -0.0090553425 0.00914168 0.0013314044 -0.0027596795 -0.0024778426 -0.0042204787 0.004812337 0.004400222 -0.0026533627 -0.007341881 -0.0035658514 -0.00033661484 0.0060958923 -0.0028373385 -0.00012089491 0.00087972643 -0.0070956494 0.0020650018 -0.0014324236 0.0028021492 0.0048422217 -0.0013520193 -0.002780143 0.0077386475 0.005045599 0.0067135217 0.004515643 0.008667155 0.0074749696 -0.0010818875 0.008747638 0.0046017184 0.0054406333 -0.0013860846 -0.0020413185 -0.0044243457 -0.008515197 0.0030377281 0.008883192 0.008919742 -0.0019423545 0.0060861576 0.0037797235 -0.0042959657 0.002042924 -0.0054378854 0.008208892 0.0054329084 0.0031844343 0.0041025686 0.00865715 0.007272035 -0.0008334732 -0.007072768 0.008380473 0.007233584 0.0017304718 -0.0013474918 -0.005890092 -0.0045330906 0.008647966 -0.0031351077 -0.0063388194 0.0098700775
Advanced 0.0076966463 0.009120642 0.0011355019 -0.008325079 0.008425016 -0.0036962307 0.005742173 0.0043915794 0.009689945 -0.009293498 0.009208405 -0.009281528 -0.006907712 -0.009102195 -0.00554711 0.007368896 0.009164478 -0.0033253515 0.0037230505 -0.0036252034 0.007881471 0.005866876 2.0861626e-07 -0.0036286747 -0.007224306 0.004768616 0.0014529788 -0.0026131857 0.007837807 -0.0040496145 -0.009148986 -0.0022554707 0.00012514711 -0.006639255 -0.005486616 -0.008499777 0.009229873 0.007424028 -0.00029524326 0.0073676636 0.007950788 -0.00078357337 0.006612091 0.0037675237 0.0050768424 0.007252991 -0.0047393893 -0.002185533 0.0008731234 0.004236206 0.0033043313 0.0050958274 0.0045864857 -0.008438509 -0.0031838394 -0.0072367596 0.009681422 0.0050065992 0.00017084122 0.004112978 -0.007656131 -0.006294651 0.0030763936 0.0065346383 0.0039498745 0.006018022 -0.0019861318 -0.0033451295 0.00020717025 -0.0031943608 -0.0055169044 -0.0077885604 0.006535543 -0.001090337 -0.0018908798 -0.007804775 0.009337573 0.00086814165 0.0017696369 0.002491666 -0.007385993 0.0016388226 0.002976563 -0.00856703 0.004955802 0.0024334085 0.0074979127 0.0050442982 -0.0030317164 -0.007162937 0.0070962133 0.0019015349 0.005199236 0.006381109 0.0019122792 -0.0061276113 -6.2966346e-06 0.008268298 -0.006098548 0.009438281
users -0.0071909428 0.0042328904 0.0021633946 0.0074407146 -0.004889265 -0.0045643463 -0.006098174 0.0032993674 -0.004499463 0.008522885 -0.004288827 -0.00910542 -0.0048163556 0.0064164903 -0.006371324 -0.0052615367 -0.007304411 0.0060222615 0.003357594 0.0028483903 -0.0031385506 0.006030891 -0.0061527453 -0.0019801008 -0.005983082 -0.0009956801 -0.002020986 0.008485946 7.800102e-05 -0.008575326 -0.0054290984 -0.006875986 0.0026923812 0.009456648 -0.005815996 0.008265026 0.008532052 -0.007062639 -0.008883213 0.009469184 0.008374364 -0.0046908916 -0.006726041 0.007842137 0.0037633455 0.008095504 -0.007571546 -0.009525085 0.001577406 -0.009805768 -0.0048858845 -0.0034601032 0.009620923 0.008623569 -0.0028356076 0.005826873 0.008237095 -0.002262981 0.009528542 0.007160215 0.0020415008 -0.0038487636 -0.00508175 -0.0030516528 0.0078878645 -0.0061904346 -0.0029150224 0.009191022 0.0034566557 0.006072612 -0.008032816 -0.0007515049 0.0055224476 -0.0047144685 0.0074784933 0.009319591 -0.00040936828 -0.002063601 -0.0005933583 -0.0057858895 -0.008386281 -0.0015068734 -0.0025571836 0.004382434 -0.0068675173 0.0054136957 -0.0067450856 -0.00782029 0.008471712 0.008918614 -0.0034812402 0.0034914147 -0.005795735 -0.008750086 -0.0055155717 0.006748729 0.0064177597 0.009438073 0.007055285 0.0067549525
can 0.0013001668 -0.009804303 0.0045877625 -0.0005382228 0.0063320957 0.0017834747 -0.0031297982 0.007759973 0.0015546656 5.52094e-05 -0.004612954 -0.008453524 -0.007766832 0.00867051 -0.00892496 0.009034716 -0.009281018 -0.0002767563 -0.001907047 -0.008931146 0.00863006 0.0067778137 0.003019439 0.004833453 0.000112190246 0.009424681 0.0070212875 -0.009853726 -0.0044332207 -0.0012901116 0.0030477226 -0.0043239524 0.0014491666 -0.007845899 0.0027780735 0.004702692 0.0049373126 -0.0031757022 -0.008427041 -0.009220618 -0.00072289945 -0.007327465 -0.0068149627 0.0061200056 0.0071723033 0.0021174191 -0.007899401 -0.005698988 0.008051845 0.003920844 -0.00524047 -0.0073919045 0.0007715547 0.0034637547 0.0020791935 0.003100804 -0.0056205 -0.009889486 -0.007020837 0.00023030877 0.004618679 0.004526308 0.0018798125 0.0051706745 -0.00010536075 0.0041141664 -0.009123241 0.0077009117 0.006147474 0.0051241564 0.007206669 0.008439797 0.00073869585 -0.0017038607 0.00051862834 -0.009316781 0.008406214 -0.006379932 0.0084278425 -0.004244355 0.0006468427 -0.0091641685 -0.009558568 -0.00783681 -0.0077310563 0.000375582 -0.0072264625 -0.0049502132 -0.0052717067 -0.004289298 0.0070123114 0.00482939 0.008682771 0.0070935916 -0.005694406 0.007240796 -0.009294903 -0.0025875687 -0.0077571664 0.0041926014
load 0.0018009773 0.0070446488 0.002944241 -0.006981351 0.007712169 -0.0059898123 0.008998442 0.0029606568 -0.0040169433 -0.0046907626 -0.004417919 -0.0061471704 0.0093783755 -0.002648815 0.007773203 -0.009680761 0.0021092105 -0.0012331565 0.0075455415 -0.009054631 0.0074378704 -0.0051066196 -0.0060130763 -0.005649522 -0.0033794516 -0.0034110735 -0.0031968092 -0.007492043 0.0007101688 -0.0005758158 -0.0016818999 0.003756628 -0.0076215584 -0.0032225822 0.005155084 0.008544102 -0.009809002 0.0071962723 0.005310025 -0.0038809627 0.008577633 -0.00922345 0.007249388 0.0053638113 0.0012932378 -0.005199907 -0.0041799964 -0.003356461 0.001609365 0.0015861294 0.0073879166 0.009975556 0.00886769 -0.0040054154 0.0096443305 -0.00062785577 0.004865867 0.0025485766 -0.0006293197 0.0036665828 -0.0053186077 -0.0057557826 -0.0076024802 0.0019072999 0.0065254886 0.0008841532 0.0012574301 0.0031725955 0.008133632 -0.0077004186 0.0022616785 -0.0074736723 0.003711116 0.009511249 0.007521755 0.0064261514 0.008013993 0.0065524266 0.006855466 0.008681848 -0.0049482915 0.00921195 0.0050591854 -0.0021300449 0.008488401 0.0050802273 0.009648853 0.0028338986 0.009866783 0.0011965155 0.009131074 0.0035869302 0.006564025 -0.003610644 0.006793985 0.0072446326 -0.002132475 -0.001860923 0.0036125402 -0.0070364247
a 0.009733626 -0.009779383 -0.006500968 0.002783835 0.006429324 -0.0053710975 0.0027551022 0.009125682 -0.006820994 -0.0061071506 -0.0049940664 -0.00368074 0.0018489811 0.009683389 0.0064403126 0.0003958725 0.0024668302 0.008441618 0.009133961 0.0056288172 0.0059446543 -0.007620613 -0.0038269432 -0.0056725233 0.006183497 -0.0022548363 -0.008783004 0.0076171854 0.008405277 -0.003319532 0.0091196485 -0.0007387855 -0.0036322298 -0.0003896756 0.00019526234 -0.003497157 0.0028195633 0.0057294606 0.0068678944 -0.008903853 -0.002185424 -0.0054885815 0.0075167096 0.006497901 -0.004363716 0.0023265523 -0.005955219 0.0002383041 0.009459835 -0.0026142336 -0.005182255 -0.007405722 -0.0029145011 -0.0008558821 0.0035241765 0.009745837 -0.0033868407 0.0018935482 0.009678402 0.0015256159 0.0009854264 0.009802274 0.009303984 0.0077078873 -0.0061674826 0.009988651 0.00584803 0.009072534 -0.0020018504 0.0033485498 0.006832208 -0.0038893835 0.006645957 0.0025643664 0.009313172 -0.0030314066 -0.00311782 0.006219156 -0.009079017 -0.0072479104 -0.0064991666 -0.00075189414 -0.0023568207 0.0068092686 0.009235595 -0.00091243646 0.0014142973 0.0020237875 -0.0020193597 -0.008033699 0.0074464786 -0.0042947317 0.0045699435 0.009090498 0.0030491375 0.0031378919 0.0040630605 -0.0027061664 0.0038260159 0.00033993885
model 0.005626712 0.005497371 0.0018291199 0.0057494068 -0.008968078 0.0065593575 0.009225992 -0.0042071473 0.0016075504 -0.0052338815 0.0010582185 0.0027701687 0.008160736 0.00054401276 0.0025570584 0.001297735 0.008402523 -0.0057077026 -0.00626183 -0.0036275184 -0.0023005498 0.005041063 -0.008120357 -0.0028335357 -0.008197427 0.00514971 -0.0025680638 -0.009067107 0.0040717293 0.009017323 -0.0030376601 -0.0058385395 0.0030198884 -0.00043584823 -0.009979436 0.008417704 -0.0073388875 -0.004930407 -0.002657081 -0.0054523144 0.00171651 0.009712814 0.0045722723 0.008088603 -0.00047045827 0.0006449234 -0.002668352 -0.008779561 0.0034313034 0.0020933736 -0.009421854 -0.004968437 -0.009734099 -0.0057197916 0.0040645422 0.008642861 0.00411165 0.0023884643 0.008144778 -0.0011192096 -0.0013977134 -0.008746823 -0.00012579202 -0.0025675725 0.00038607715 0.007279662 -0.0070414604 -0.0039464748 -0.0066646053 -0.0035441148 -0.0033158315 0.002137121 0.0033281683 -0.004957187 -0.0045462907 0.0011386942 0.0054534827 0.0053736498 -0.0029685367 -0.0042665256 -0.005616647 -0.00054498314 0.001946373 0.0015253461 0.0073525296 -0.0027333724 -6.592393e-05 -0.0055276332 -0.0011700654 -0.0077119637 -0.0009593296 0.0013096749 -0.008594744 0.0087485835 -0.009207866 -0.009624677 -0.008511624 0.0073132683 0.0054655685 0.009249462
continue 0.0025701774 0.00084652903 -0.0025394403 0.009357668 0.0027575088 0.0040956484 -0.0011829352 0.00090450404 0.0066243075 -0.00072650076 0.0033415079 -0.0006720209 0.0052483976 0.0036399341 0.0025825298 -0.005309893 -0.0047081006 0.004308022 -0.005907171 -0.0001802063 -0.0006335163 0.0034932434 -0.008442266 0.008817234 -0.0014487446 -0.005330927 0.004054469 -0.0019354904 -0.0077654826 -0.0044967984 -0.00038772702 -0.008946473 0.0005705631 0.0024417937 -0.003225273 0.0025704002 0.0024807977 0.009988216 0.0014305055 0.0020205379 0.0027795613 -0.0020778715 -0.008698616 0.008023174 -0.0019746972 -0.009692314 -0.0065520047 -0.003945861 0.003954347 0.005038581 0.006086011 -0.00677026 0.0006888378 -0.0027752817 -0.005209197 0.0069812727 0.0039519668 -0.003106507 -0.008276907 -0.005140786 -0.00064953446 0.0078117643 0.0060441853 -0.008451656 -0.009563535 0.0071338355 -0.002327566 -0.0036923087 0.0057498324 -0.0058443057 0.005093955 -0.0002424252 -0.0068751634 -0.00033163786 0.006358992 0.009293939 0.002220913 0.005050093 -0.0049745236 -0.0007975519 -0.0053176354 0.0011889625 -0.0017932141 -0.0036326349 -0.0070143794 0.009654432 0.0029758275 -0.0022812248 -0.00418409 0.0077137877 -0.0064818547 0.003121543 0.0007873571 0.008322881 0.0068361773 -0.002908647 0.0025351 -0.0016660726 -0.009454662 -0.002613461
training 0.0013325238 0.0065408563 0.009984603 0.009062455 -0.008015361 0.006491386 -0.0057147373 -0.0009715748 0.00048282265 0.0065819337 0.0044701435 0.004603727 0.009483124 0.0003826642 -0.0060387133 -0.0063301004 0.0064317896 -0.0052425815 -0.0028498126 0.004075284 -0.0022902358 -0.006025213 -0.002323655 0.001206919 0.0021833598 0.0060837734 -0.005214001 0.0030779613 0.007240676 0.0021951138 0.00539749 -0.0048453333 0.006152612 -0.0076012816 0.0034928655 -0.009321804 -0.0026043104 -0.009073199 -0.0015882683 -0.005364752 -0.0039439187 0.0011536527 0.0028003477 -0.0015263951 -0.008170515 -0.0059180222 0.00081929564 -0.0039462578 -0.009430448 -0.0007749748 0.0066332687 0.005978844 -0.009917259 0.003118583 -0.005987301 -0.009181891 0.00017021298 -0.00036962033 -0.0069719995 -0.0062800576 -0.0024260855 0.0070966566 -0.007545879 0.007698084 -0.0004754448 0.0010932934 0.009482661 0.00472816 -0.0035727667 0.0037356198 0.003519286 0.0063366974 6.933927e-05 -0.0044236863 0.0013182712 -0.0054142345 0.0014117574 0.004926181 0.005154848 0.009181637 -0.007512665 -0.005403644 0.0064693727 0.0013554788 -0.006611801 0.00088438985 0.0026770402 -0.0025288356 -0.0049601602 0.005004755 0.009621821 -0.0073646735 -0.00011532188 -0.0025644589 -0.006365142 -0.0013786554 -0.0052507855 0.009059995 -0.0057907687 0.003686075
it -0.00023475189 0.00421699 0.0021139905 0.010002637 0.0006291208 -0.005471886 -0.0011776675 0.0020775036 -0.003382128 -0.00785927 -0.0056088795 -0.0067579374 0.00635737 0.0039255437 0.008224847 0.00652239 -0.006132968 0.0027193672 0.008480984 0.0015986105 0.00307066 0.005814035 -0.008845916 0.009128275 0.006823066 0.008515165 -0.008236464 0.0061830026 0.0066375867 -0.0013560752 -0.006293396 0.0053263283 -0.006868323 -0.0053321864 0.003514465 0.008087154 0.008702456 -0.0044023325 -0.009190604 0.00961049 0.0062978566 -0.0039741984 -0.008465265 -0.0047171796 -0.0039613345 -0.00327852 0.0008157459 -0.00029379115 -0.0031069063 -0.006001578 0.009423428 -0.004734772 -0.007262639 0.0076907016 0.0025180746 0.00864229 -0.004468173 -0.0068964455 0.0009899151 -0.0011729774 -0.0093984725 -0.0015989117 0.0030591562 0.0065738093 0.0068488754 0.0032175207 -0.004443924 -0.0018320432 -0.0039457395 0.0057761637 -0.0063576745 0.0021034146 -0.0013384554 -0.005814842 -0.0072481106 0.0058593764 -0.00836773 -0.0006850655 0.0028254183 0.0077390703 -0.007306597 0.0033049926 0.0098151425 -0.0069811107 -0.0035319119 0.005134054 0.005240549 0.0016326811 0.007977567 0.0008284805 0.0018808387 -0.0016068007 -0.00817365 0.0032653452 0.001972398 -0.008736926 -0.00067515 7.21727e-05 -1.6718275e-06 0.008712606
with -0.0025092443 -0.0059031188 0.007483349 -0.0072605466 -0.008967821 -0.0017905197 -0.0083663175 0.00039148238 0.0019435956 -0.0024719876 -0.0064495676 -0.00032220813 -0.0010992584 0.0034927584 0.008127412 0.0058546145 0.008440379 -0.008968497 0.009443192 -0.0023663417 0.008696195 0.0023845446 0.0035864864 -0.009580599 -0.009487472 0.008984136 -0.0028975166 0.0028155989 0.0064205755 -0.00029876755 0.009723437 -0.001034669 -0.009674661 -0.007057026 -0.0010432998 -0.008673109 0.007422988 0.0036201226 -0.008746799 0.008479075 0.008932478 0.005845242 0.0069089187 -0.009571562 0.0004922627 -0.009221363 -0.0036670975 0.00025410473 -0.00027993182 0.0014644242 0.0032780238 0.002124274 0.005320867 0.0075224997 -0.0058877515 0.007959121 0.005992611 0.009784232 0.004623118 -0.0033288398 -0.003745116 -0.00062899507 -0.0016526425 0.009872569 0.0011238885 0.004009141 0.0034183294 -0.008850416 0.006718705 0.008189651 -0.0016653249 0.0023347554 -0.0064774486 -0.006124907 0.008216381 -0.0030439796 0.006738228 0.0015542668 -0.0019819972 0.0030560566 -0.004020646 -0.0017868443 0.0013816614 0.004885745 -0.0014050154 0.0006548501 -0.007932667 0.009497529 -0.008762704 0.007070091 0.0039075064 -0.0069970693 -0.005297463 -0.007938006 -0.005128334 0.007071418 0.009641016 0.002152485 0.00064131443 0.009524032
sentences -0.0049735666 -0.0012833046 0.0032806373 -0.006414033 -0.009701589 -0.0092602335 0.009020697 0.0053716935 -0.004788227 -0.008329642 0.0012939513 0.0028780627 -0.0012452841 0.0012708711 -0.004321303 0.004791366 0.0014751852 0.008877825 -0.009976514 -0.0052695703 -0.009102842 -0.00034791828 -0.007857306 0.005031241 -0.006396855 -0.0059528374 0.0050709103 -0.008159769 0.0014552021 -0.007239541 0.009862422 0.008633759 0.0017689526 0.0057885037 0.0045962157 -0.005991783 0.009756947 -0.0096822055 0.008049258 0.0027563798 -0.003055122 -0.0035618627 0.009071954 -0.0054409085 0.008186872 -0.006008887 0.008391377 -0.0005554938 0.007942599 -0.0031549716 0.005979215 0.0088043455 0.002543838 0.001317749 0.0050391923 0.008002522 0.008568014 0.0084927725 0.0070525263 0.00800265 0.00859974 -3.3091306e-05 -0.0010037315 0.0016657913 3.273487e-06 0.00068517687 -0.008600937 -0.009594731 -0.002314676 0.0089282 -0.0036475873 -0.0069781933 0.004879383 0.0010691178 0.0018510211 0.0036529566 0.0035206736 0.005726122 0.0012343001 0.0008444631 0.009045251 0.0027822172 -0.0047028554 0.0065421867 0.005213312 0.002870567 -0.0031378341 0.0033368361 0.006364298 0.00708104 0.00094116566 -0.008531767 0.00025776148 0.00037042022 0.003942982 -0.00946896 0.009707871 -0.006972277 0.00576144 -0.009429872
ds 0.009648528 0.007324829 0.0012616563 -0.003405236 -0.00045065998 0.00042262315 -0.006409205 0.005745158 0.0023714018 0.0037779354 -0.0072550178 0.008526291 0.0005082536 -0.00020392657 -0.009071607 0.0040487554 0.0067634354 0.0073550926 -0.006417525 -0.00785606 -0.005523714 -0.00060289743 -0.00833798 -0.008240116 -0.0019175697 0.0011392868 -0.009506548 -0.003732934 0.0006447804 0.0068099652 0.0017349911 -0.00063238264 -0.007481395 -0.0067420946 -0.0006944287 0.0074675824 0.00544287 -0.0014826906 0.0011723089 -0.0096057765 -0.0013844955 -0.004626223 0.005809311 -0.0023380124 -0.0047640656 -0.009475115 -0.0012003147 -0.00719777 -0.0016852176 -0.004069823 -0.0023741352 -0.003248335 -0.008156473 -0.0012484109 0.0016909433 -0.0040476443 -0.0076414524 -0.0035866357 -0.009047134 -0.000758425 0.0058830045 -0.002961346 0.0031617582 0.004995718 0.008468428 0.0056214156 0.009508546 -0.009646681 -0.007962675 -0.0067581558 -0.0074677086 -0.007963618 -0.007788169 -0.0029426264 0.0013961601 -0.0028747893 -0.0088162515 0.004985862 0.00090089085 0.0045904014 0.007195338 0.007648294 -0.0008046472 0.00365996 -0.005123576 0.0019106817 0.0045382692 0.009886663 -0.0031874895 0.002839334 -0.0057363496 -0.0022105658 0.008125096 -0.0039046574 -0.0011885798 -0.009284974 -0.009476776 0.008882767 -0.005702922 0.005052792
